digraph Tree {
node [shape=box, style="filled, rounded", color="black", fontname=helvetica] ;
edge [fontname=helvetica] ;
0 [label=<petal width (cm) &le; 0.8<br/>gini = 0.666<br/>samples = 98<br/>value = [47, 52, 51]<br/>class = versicolor>, fillcolor="#39e58103"] ;
1 [label=<gini = 0.0<br/>samples = 31<br/>value = [47, 0, 0]<br/>class = setosa>, fillcolor="#e58139ff"] ;
0 -> 1 [labeldistance=2.5, labelangle=45, headlabel="True"] ;
2 [label=<petal length (cm) &le; 4.75<br/>gini = 0.5<br/>samples = 67<br/>value = [0, 52, 51]<br/>class = versicolor>, fillcolor="#39e58105"] ;
0 -> 2 [labeldistance=2.5, labelangle=-45, headlabel="False"] ;
3 [label=<gini = 0.0<br/>samples = 30<br/>value = [0, 46, 0]<br/>class = versicolor>, fillcolor="#39e581ff"] ;
2 -> 3 ;
4 [label=<sepal width (cm) &le; 2.75<br/>gini = 0.1884<br/>samples = 37<br/>value = [0, 6, 51]<br/>class = virginica>, fillcolor="#8139e5e1"] ;
2 -> 4 ;
5 [label=<petal width (cm) &le; 1.7<br/>gini = 0.4628<br/>samples = 8<br/>value = [0, 4, 7]<br/>class = virginica>, fillcolor="#8139e56d"] ;
4 -> 5 ;
6 [label=<gini = 0.4444<br/>samples = 3<br/>value = [0, 4, 2]<br/>class = versicolor>, fillcolor="#39e5817f"] ;
5 -> 6 ;
7 [label=<gini = 0.0<br/>samples = 5<br/>value = [0, 0, 5]<br/>class = virginica>, fillcolor="#8139e5ff"] ;
5 -> 7 ;
8 [label=<petal length (cm) &le; 5.0<br/>gini = 0.0832<br/>samples = 29<br/>value = [0, 2, 44]<br/>class = virginica>, fillcolor="#8139e5f3"] ;
4 -> 8 ;
9 [label=<gini = 0.4444<br/>samples = 4<br/>value = [0, 2, 4]<br/>class = virginica>, fillcolor="#8139e57f"] ;
8 -> 9 ;
10 [label=<gini = 0.0<br/>samples = 25<br/>value = [0, 0, 40]<br/>class = virginica>, fillcolor="#8139e5ff"] ;
8 -> 10 ;
}